-7.860763669013977051e-01
-1.056915640830993652e+00
2.366686248779296875e+01
2.406752586364746094e+00
-9.938623756170272827e-02
-6.190279960632324219e+00
5.366456508636474609e-01
-5.408049225807189941e-01
-5.794293403625488281e+00
-7.044077873229980469e+00
4.396770954132080078e+00
3.580132007598876953e+00
-7.658272266387939453e+00
-6.894819736480712891e-01
1.584504246711730957e+00
1.677111983299255371e+00
1.610038518905639648e+00
3.932058334350585938e+00
2.055775225162506104e-01
1.048051118850708008e-01
1.376506537199020386e-01
-2.926941871643066406e+00
-9.475137710571289062e+00
-9.526576042175292969e+00
-5.279988288879394531e+00
-5.355572700500488281e+00
1.152617692947387695e+00
-5.615697860717773438e+00
-4.178244590759277344e+00
2.132039785385131836e+00
-6.178570747375488281e+00
-2.315884828567504883e-01
2.130146265029907227e+00
7.263648033142089844e+00
-2.083531379699707031e+00
5.720876693725585938e+00
-4.798277378082275391e+00
2.265882194042205811e-01
-2.936421155929565430e+00
-7.967641830444335938e+00
-4.475735187530517578e+00
-6.848307609558105469e+00
4.096876144409179688e+00
-5.270955562591552734e+00
-7.205622196197509766e+00
-5.138347625732421875e+00
-8.539109826087951660e-01
-3.485942125320434570e+00
-2.396689414978027344e+00
-3.670464754104614258e+00
-5.677458047866821289e-01
-5.812042713165283203e+00
1.980308651924133301e+00
1.747332692146301270e+00
-3.266542911529541016e+00
5.643583297729492188e+00
-7.619861602783203125e+00
-3.958855628967285156e+00
-8.001927375793457031e+00
4.080838680267333984e+00
1.379174888134002686e-01
2.276406526565551758e+00
2.273319959640502930e+00
3.689054965972900391e+00
-4.364118099212646484e+00
-8.609377592802047729e-02
-1.027752876281738281e+01
7.796316742897033691e-01
7.257259845733642578e+00
-1.427495956420898438e+00
1.051840662956237793e+00
-6.567625522613525391e+00
1.638374090194702148e+00
1.646850228309631348e+00
4.171235561370849609e+00
7.777867317199707031e-01
6.521548032760620117e-01
-5.830695033073425293e-01
-4.258004665374755859e+00
-2.819894313812255859e+00
-4.130726337432861328e+00
6.908247470855712891e-01
-4.933435440063476562e+00
-8.365894317626953125e+00
-7.895996093750000000e+00
6.482242584228515625e+00
1.241083502769470215e+00
7.399225234985351562e+00
-1.831509232521057129e+00
-4.039832115173339844e+00
1.153137111663818359e+01
1.819453048706054688e+01
-1.190132904052734375e+01
-5.525866031646728516e+00
-2.434351921081542969e+00
-3.192764282226562500e+00
-4.649451255798339844e+00
-8.927887916564941406e+00
-8.401186943054199219e+00
-4.112967014312744141e+00
-4.986862659454345703e+00
7.992696285247802734e+00
1.373169898986816406e+00
-1.477800846099853516e+00
1.725544184446334839e-01
3.149728584289550781e+01
1.030526161193847656e+00
1.728795289993286133e+00
1.960833787918090820e+00
3.181143701076507568e-01
7.102411389350891113e-01
4.605390548706054688e+00
1.036155223846435547e+01
1.060314655303955078e+01
8.282503485679626465e-01
-6.016136646270751953e+00
1.445747971534729004e+00
-1.245123744010925293e+00
-3.517503976821899414e+00
-7.279182434082031250e+00
-2.048735618591308594e+00
1.295979857444763184e+00
-7.664690017700195312e+00
-2.991153240203857422e+00
-1.689094901084899902e+00
1.840598940849304199e+00
-4.604936599731445312e+00
-1.608065795898437500e+01
4.256520271301269531e+00
-2.801291644573211670e-01
-3.859120607376098633e+00
2.184416770935058594e+00
7.838621139526367188e+00
2.130411386489868164e+00
-3.339298725128173828e+00
-2.009592771530151367e+00
-1.675151634216308594e+01
1.542248725891113281e+00
-1.357692337036132812e+01
-1.699265718460083008e+00
-8.535514831542968750e+00
-1.032095074653625488e+00
-7.308332920074462891e-01
-1.121537566184997559e+00
2.367380142211914062e+00
-6.085281372070312500e+00
2.411570310592651367e+00
1.020171928405761719e+01
-5.798139572143554688e+00
-1.962328433990478516e+00
1.983958482742309570e-01
2.408031940460205078e+00
-2.217515945434570312e+00
1.746378064155578613e+00
-2.169792175292968750e+00
-2.567683696746826172e+00
3.527953147888183594e+00
-5.506677627563476562e+00
1.014912891387939453e+01
-4.528507709503173828e+00
4.214679241180419922e+00
-1.375425934791564941e+00
-5.908443450927734375e+00
7.753433704376220703e+00
-4.406548291444778442e-02
-1.865003108978271484e+00
-7.792938232421875000e+00
1.076222515106201172e+01
-2.187242269515991211e+00
-2.760547637939453125e+00
-1.097765254974365234e+01
4.561901569366455078e+00
-6.431716442108154297e+00
-4.591032981872558594e+00
3.314812660217285156e+00
5.938681125640869141e+00
-9.618292808532714844e+00
-1.532841801643371582e+00
-9.626327514648437500e+00
-2.824387788772583008e+00
-8.537512779235839844e+00
8.875340461730957031e+00
-5.226116657257080078e+00
2.631495952606201172e+00
6.093457698822021484e+00
1.044938182830810547e+01
-8.132180213928222656e+00
-9.980566978454589844e+00
-1.647811979055404663e-01
-4.151298999786376953e+00
-5.763662815093994141e+00
4.149274826049804688e+00
4.985832214355468750e+00
-5.663948059082031250e+00
-1.177097511291503906e+01
-3.825247049331665039e+00
2.705387830734252930e+00
2.330834627151489258e+00
-1.873206257820129395e+00
1.059705376625061035e+00
2.875805854797363281e+00
-1.072311043739318848e+00
-1.038513374328613281e+01
1.973672509193420410e-01
-7.806779861450195312e+00
7.071435451507568359e+00
-2.332943081855773926e-01
-1.206433534622192383e+00
5.720803737640380859e+00
2.154159545898437500e+00
-3.423139095306396484e+00
5.319972515106201172e+00
5.885469913482666016e+00
4.027255535125732422e+00
-7.719371318817138672e+00
-7.726091742515563965e-01
-5.438027381896972656e+00
8.360805511474609375e+00
2.221869468688964844e+00
-3.119075059890747070e+00
-2.129397869110107422e+00
-2.318774938583374023e+00
-5.843575477600097656e+00
1.761835861206054688e+01
1.711980581283569336e+00
-4.564775943756103516e+00
-2.443682909011840820e+00
-4.280063807964324951e-01
-1.346834850311279297e+01
-8.565285205841064453e-01
-3.765087366104125977e+00
-1.889347076416015625e+01
-7.633771896362304688e+00
-1.872902393341064453e+00
8.064240217208862305e-02
-6.303812503814697266e+00
-7.448101043701171875e+00
-2.006692199707031250e+02
-6.559564590454101562e+00
2.884977459907531738e-01
-4.091235637664794922e+00
1.329234313964843750e+01
-3.732081949710845947e-01
-2.509307675063610077e-02
-2.825828313827514648e+00
8.087258785963058472e-02
2.561118125915527344e+00
2.654606342315673828e+00
-1.064694598317146301e-01
-2.323073148727416992e+00
8.572877883911132812e+00
-6.973534077405929565e-02
-6.440229415893554688e+00
-4.200041294097900391e+00
-1.250226140022277832e+00
4.280198574066162109e+00
-1.476152777671813965e+00
-1.407281875610351562e+00
1.248261070251464844e+01
-6.884234428405761719e+00
-5.937992930412292480e-01
-2.791121959686279297e+00
-2.027174987792968750e+02
-2.053622722625732422e+00
-9.518895149230957031e+00
-7.113111495971679688e+00
1.799666595458984375e+01
4.215667724609375000e+00
-5.264176845550537109e+00
-1.802531242370605469e+00
-4.206524848937988281e+00
-5.617098808288574219e+00
-1.926703572273254395e+00
8.743218421936035156e+00
-6.021749973297119141e+00
-2.096423864364624023e+00
4.351089000701904297e+00
8.113325119018554688e+00
-3.405869483947753906e+00
-2.255352258682250977e+00
-5.316488742828369141e-01
2.555825471878051758e+00
5.237192153930664062e+00
-8.758611679077148438e+00
6.239927291870117188e+00
-8.967721939086914062e+00
3.184995412826538086e+00
4.073474884033203125e+00
-1.851014137268066406e+01
-1.707500696182250977e+00
-5.692225933074951172e+00
8.994479775428771973e-01
4.073977470397949219e+00
-1.755742788314819336e+00
7.706476211547851562e+00
-1.680916666984558105e+00
-5.125174999237060547e+00
-4.605371952056884766e+00
-3.874036550521850586e+00
-6.651381015777587891e+00
-2.279932737350463867e+00
-2.973667681217193604e-01
-1.398173093795776367e+00
-2.766806602478027344e+00
1.093299865722656250e+00
4.924469470977783203e+00
5.430983066558837891e+00
8.748666763305664062e+00
-8.731698036193847656e+00
7.747044563293457031e-01
2.969205617904663086e+00
7.840896129608154297e+00
-1.379515266418457031e+01
-2.799781322479248047e+00
-1.380003070831298828e+01
1.183405518531799316e+00
-5.833375453948974609e+00
1.167348504066467285e+00
-2.564455747604370117e+00
-3.425215482711791992e-01
-5.050616860389709473e-01
3.589025139808654785e-02
-2.954375982284545898e+00
-2.822703123092651367e+00
-3.931694507598876953e+00
-5.433765888214111328e+00
5.939817428588867188e+00
2.026587963104248047e+00
-8.319969177246093750e+00
3.931631803512573242e+00
-7.921029567718505859e+00
1.777145862579345703e+00
-6.518345355987548828e+00
-3.811709165573120117e+00
-1.185029029846191406e+01
-2.705774784088134766e+00
-4.971815109252929688e+00
-3.815026044845581055e+00
-1.910889744758605957e+00
1.713986277580261230e+00
1.074715614318847656e+00
3.969229459762573242e+00
7.124917984008789062e+00
-1.766649961471557617e+00
-3.755771160125732422e+00
2.374783039093017578e+00
-6.901306152343750000e+00
5.703356266021728516e+00
-4.570623874664306641e+00
3.091096878051757812e+00
-5.730548381805419922e+00
-3.078978061676025391e+00
-4.382001981139183044e-02
6.778014898300170898e-01
-6.937278062105178833e-02
-2.974126815795898438e+00
-9.121710777282714844e+00
7.092026233673095703e+00
-6.974296569824218750e+00
1.507399320602416992e+00
-1.030389308929443359e+00
5.294940471649169922e+00
3.229769229888916016e+00
-4.491417407989501953e+00
-5.614687442779541016e+00
8.947929143905639648e-01
-1.002818298339843750e+01
-4.779365062713623047e+00
5.393642783164978027e-01
3.574029922485351562e+00
-3.683699607849121094e+00
-5.981677055358886719e+00
5.584895133972167969e+00
4.599817097187042236e-03
-1.013243484497070312e+01
-3.609592437744140625e+00
6.851610660552978516e+00
2.111813306808471680e+00
-1.349798560142517090e+00
5.396810531616210938e+00
1.294515037536621094e+01
7.501022517681121826e-02
-1.094089269638061523e+00
2.843775987625122070e+00
3.322326421737670898e+00
-2.154439210891723633e+00
-4.391091346740722656e+00
-5.923255681991577148e-01
-5.869518756866455078e+00
-8.644173622131347656e+00
3.564278602600097656e+00
3.287279129028320312e+01
4.684408307075500488e-01
1.335428476333618164e+00
6.405826091766357422e+00
2.957673788070678711e+00
6.523452401161193848e-01
-2.355744838714599609e+00
-1.925663709640502930e+00
1.262231707572937012e+00
2.271886825561523438e+01
1.288767337799072266e+00
-1.119286775588989258e+00
2.945675611495971680e+00
-1.695905327796936035e+00
7.569556832313537598e-01
-4.042510315775871277e-02
1.225184798240661621e+00
1.231154346466064453e+01
1.505303096771240234e+01
-6.551764011383056641e+00
-1.452742338180541992e+00
1.457992553710937500e+00
-5.188250541687011719e+00
2.428846210241317749e-01
-9.256830215454101562e+00
-4.347650051116943359e+00
2.115939855575561523e+00
-6.313950538635253906e+00
6.249985218048095703e+00
-6.094061851501464844e+00
5.053087234497070312e+00
3.983604431152343750e+00
-2.227318286895751953e+00
1.056261301040649414e+00
1.134955120086669922e+01
-8.764635086059570312e+00
4.558956921100616455e-01
4.881405353546142578e+00
-3.023649454116821289e+00
8.927838802337646484e-01
-2.089426070451736450e-01
-1.392936468124389648e+00
2.066247224807739258e+00
-1.768590927124023438e+01
5.793258547782897949e-01
-5.191575050354003906e+00
-1.563121080398559570e+00
-2.598017454147338867e+00
1.110022783279418945e+00
-4.334846496582031250e+00
5.358290195465087891e+00
-2.253110855817794800e-01
9.667681694030761719e+00
-6.225355148315429688e+00
-7.292673110961914062e+00
3.740238428115844727e+00
5.398070335388183594e+00
1.443704032897949219e+01
-6.593783378601074219e+00
4.029785633087158203e+00
2.400359392166137695e+00
-7.794786930084228516e+00
2.126664400100708008e+00
1.197355461120605469e+01
-3.326630115509033203e+00
-5.046554565429687500e+00
-1.978012442588806152e+00
3.458013296127319336e+00
-8.031412363052368164e-01
-3.959261998534202576e-02
5.980308532714843750e+00
-7.904870033264160156e+00
4.493342399597167969e+00
3.832803249359130859e+00
-9.751943588256835938e+00
-5.969476222991943359e+00
-1.960899114608764648e+00
4.760998785495758057e-01
2.566287040710449219e+00
-2.601404666900634766e+00
-9.151244163513183594e+00
1.813567280769348145e+00
4.078227996826171875e+00
-1.769495964050292969e+00
2.185098171234130859e+00
-1.234065651893615723e+00
3.181307613849639893e-01
1.082530617713928223e+00
-1.801397800445556641e+00
2.176558017730712891e+00
-4.166536331176757812e-01
-9.294318199157714844e+00
6.759748935699462891e+00
-4.163099765777587891e+00
-1.710330396890640259e-01
-1.884489178657531738e+00
-8.778567314147949219e+00
6.498953819274902344e+00
-5.515868186950683594e+00
-1.929896116256713867e+00
-1.105159473419189453e+01
3.815822839736938477e+00
5.904967337846755981e-02
3.929431676864624023e+00
5.945062637329101562e+00
-8.422130584716796875e+00
-5.772699713706970215e-01
-5.217481136322021484e+00
-3.205777883529663086e+00
2.127959966659545898e+00
-4.740990638732910156e+00
-8.427444458007812500e+00
-3.167292833328247070e+00
5.798150062561035156e+00
-6.939358711242675781e+00
-4.900689125061035156e+00
2.640147447586059570e+00
-1.968155097961425781e+01
-1.121787786483764648e+00
2.434620380401611328e+00
-7.866345882415771484e+00
-1.037102127075195312e+01
-4.163454055786132812e+00
6.021314144134521484e+00
-1.336262989044189453e+01
1.431224226951599121e+00
8.299711346626281738e-01
-9.065590858459472656e+00
-8.219193458557128906e+00
8.331399917602539062e+00
-2.908749103546142578e+00
-2.128219127655029297e+00
9.669426083564758301e-01
-4.762867450714111328e+00
-7.585406303405761719e+00
-5.984865665435791016e+00
-7.626139640808105469e+00
-1.775203514099121094e+01
-1.061092376708984375e+00
-1.576036930084228516e+00
-1.308297872543334961e+00
-2.174860239028930664e+00
1.897762894630432129e+00
9.336245059967041016e-01
4.340807437896728516e+00
5.249773025512695312e+00
1.050991296768188477e+00
-3.183576107025146484e+00
-3.928170204162597656e+00
1.099129691720008850e-01
-2.607918024063110352e+00
-1.752662539482116699e+00
-4.064259529113769531e+00
3.456280231475830078e+00
9.546186447143554688e+00
-6.547417044639587402e-01
1.057646465301513672e+01
-9.237624168395996094e+00
-1.378427696228027344e+01
2.926618814468383789e+00
2.211987257003784180e+00
1.571557998657226562e+00
2.783737897872924805e+00
7.075629711151123047e+00
8.029706478118896484e-01
-6.859737873077392578e+00
-1.888778805732727051e+00
2.400814890861511230e-01
-1.302225351333618164e+00
-3.044576883316040039e+00
-4.244852542877197266e+00
-7.541373252868652344e+00
4.587842524051666260e-01
-3.696429729461669922e+00
5.592442750930786133e-01
-9.027966499328613281e+00
-1.116474246978759766e+01
-2.658244609832763672e+00
-3.885926246643066406e+00
6.106749534606933594e+00
-4.405499994754791260e-01
2.326379060745239258e+00
-1.833123207092285156e+00
4.071732997894287109e+00
1.080989933013916016e+01
-7.338019371032714844e+00
3.253080368041992188e+00
-1.386247128248214722e-01
-4.537698268890380859e+00
-3.762504339218139648e+00
-2.146854251623153687e-01
5.487445354461669922e+00
-2.070335149765014648e+00
-3.868551015853881836e+00
1.084414768218994141e+01
-4.065935134887695312e+00
-1.644548058509826660e+00
-1.298588275909423828e+00
1.179478049278259277e+00
2.172530293464660645e-01
1.216285514831542969e+01
4.576288700103759766e+00
-5.014980316162109375e+00
-6.546054840087890625e+00
-1.412887096405029297e+00
1.664744019508361816e+00
-2.253700971603393555e+00
1.418195486068725586e+00
-1.721860170364379883e+00
-4.122688293457031250e+00
-1.118512821197509766e+01
-2.471151113510131836e+00
-8.814089298248291016e-01
5.129844188690185547e+00
-5.921234130859375000e+00
2.526042699813842773e+00
9.383179247379302979e-02
8.599079251289367676e-01
-1.106718349456787109e+01
-2.359021425247192383e+00
1.835859417915344238e+00
2.818573474884033203e+00
2.569534778594970703e-01
-8.784910202026367188e+00
5.688401699066162109e+00
3.326046705245971680e+00
-6.080918788909912109e+00
-8.110542297363281250e+00
-7.586152553558349609e+00
4.097933769226074219e-01
1.216426849365234375e+01
-6.303545475006103516e+00
7.245818138122558594e+00
9.831111145019531250e+01
2.663228511810302734e-01
-6.049403667449951172e+00
-7.655888557434082031e+00
-8.684020996093750000e+00
-4.063275337219238281e+00
2.672973871231079102e+00
2.133328437805175781e+00
-4.820602416992187500e+00
2.145652294158935547e+00
-4.703383445739746094e+00
-5.146265983581542969e+00
-7.129541397094726562e+00
-1.567655086517333984e+00
8.817902565002441406e+00
-3.348984241485595703e+00
1.421939373016357422e+00
-4.631810188293457031e+00
3.556608676910400391e+00
8.090578079223632812e+00
-5.538689613342285156e+00
1.234544372558593750e+01
-4.424929141998291016e+00
-1.462101221084594727e+00
-6.265712976455688477e-01
-6.926505088806152344e+00
9.491983413696289062e+00
-3.724952697753906250e+00
6.637380123138427734e+00
-1.187432289123535156e+01
-1.204032230377197266e+01
2.880491316318511963e-01
3.838161468505859375e+00
-1.337310314178466797e+00
1.061598873138427734e+01
-7.048882007598876953e+00
1.104662418365478516e+00
1.905803799629211426e+00
-7.361496090888977051e-01
-8.184501647949218750e+00
6.575662136077880859e+00
-2.639631748199462891e+00
-3.799309968948364258e+00
-1.056808376312255859e+01
-5.236830711364746094e+00
-3.298078536987304688e+00
2.710613012313842773e+00
6.635467708110809326e-02
-1.162116885185241699e+00
-2.115699648857116699e-02
-1.378119826316833496e+00
-1.722840666770935059e+00
3.362867355346679688e+00
1.807099103927612305e+00
1.105826616287231445e+00
-8.904200196266174316e-01
7.945200920104980469e+00
-2.175761938095092773e+00
-2.997024774551391602e+00
7.121739387512207031e+00
1.206151390075683594e+01
1.109467124938964844e+01
-1.920058631896972656e+01
1.827911138534545898e-01
-3.795954227447509766e+00
-1.438033342361450195e+00
1.860891938209533691e+00
-5.494932651519775391e+00
-3.775685787200927734e+00
4.106969356536865234e+00
-1.791496753692626953e+00
-3.515942096710205078e+00
4.851900100708007812e+00
4.125617027282714844e+00
2.042276114225387573e-01
3.241301774978637695e+00
-5.696358680725097656e-01
-1.730843424797058105e+00
1.626519441604614258e+00
-7.413755416870117188e+00
2.809043884277343750e+00
3.816214561462402344e+00
5.715022563934326172e+00
-3.771434068679809570e+00
-5.920601844787597656e+00
-1.153432011604309082e+00
-4.931284427642822266e+00
-1.253915667533874512e+00
-9.717685699462890625e+00
1.017492580413818359e+01
-1.451593995094299316e+00
1.007756233215332031e+00
-6.486421108245849609e+00
1.134732484817504883e+00
-7.133160591125488281e+00
-4.668804168701171875e+00
1.141451716423034668e+00
2.462468862533569336e+00
1.129852294921875000e+00
1.576428532600402832e+00
-1.913167953491210938e+00
2.060510873794555664e+00
7.830297350883483887e-01
-9.407971501350402832e-01
-1.240476608276367188e+00
-3.261184692382812500e+00
-3.013573646545410156e+00
-3.518895208835601807e-01
1.877161264419555664e+00
6.078209877014160156e+00
-1.258686900138854980e+00
-1.660955190658569336e+00
1.031743812561035156e+01
-7.761356353759765625e+00
5.845152378082275391e+00
-1.391764545440673828e+01
-6.106605529785156250e+00
-2.335703134536743164e+00
-3.617204129695892334e-01
4.250763893127441406e+00
-3.393727540969848633e+00
-1.907175660133361816e+00
-2.434730720520019531e+01
2.894088983535766602e+00
8.075696945190429688e+00
1.470275640487670898e+00
1.671960115432739258e+00
1.223087120056152344e+01
-3.987661302089691162e-01
4.278860986232757568e-01
-1.647551417350769043e+00
-5.483547210693359375e+00
-2.149827718734741211e+00
2.856743164062500000e+02
-8.240292549133300781e+00
7.279294013977050781e+00
1.144912910461425781e+01
1.376613259315490723e+00
-1.365169525146484375e+00
-4.397017955780029297e+00
1.731948852539062500e+00
1.251589536666870117e+00
6.202470302581787109e+00
-3.719174385070800781e+00
-4.416351318359375000e+00
-6.047928333282470703e+00
-6.459178924560546875e-01
-1.447418689727783203e+00
-9.677390098571777344e+00
-2.247835636138916016e+00
1.959335517883300781e+01
-6.412860393524169922e+00
5.898448944091796875e+00
-4.162273883819580078e+00
7.015872597694396973e-01
-2.922029495239257812e+00
4.883468627929687500e+00
6.404541969299316406e+00
4.105077743530273438e+00
1.789767456054687500e+01
-7.581534385681152344e+00
1.059798717498779297e+01
1.409688472747802734e+00
1.134916663169860840e+00
1.372468471527099609e-01
-1.430559992790222168e+00
-5.859642028808593750e+00
4.738871574401855469e+00
1.455502390861511230e+00
-5.072387218475341797e+00
1.680833244323730469e+01
2.383901834487915039e+00
1.423594284057617188e+01
-1.111474514007568359e+01
-2.973035812377929688e+00
-7.378311157226562500e+00
6.109252572059631348e-01
-3.273582458496093750e+00
8.115694046020507812e+00
-8.550779342651367188e+00
-3.273986512795090675e-04
-1.530772209167480469e+01
3.272066879272460938e+01
3.426119804382324219e+00
-1.422076225280761719e+00
-2.509638071060180664e+00
-5.439909458160400391e+00
-1.194176006317138672e+01
-5.024313926696777344e+00
-1.077342128753662109e+01
-6.197891235351562500e+00
1.781100749969482422e+00
-3.862698316574096680e+00
-4.897264480590820312e+00
-1.395061683654785156e+01
-3.572587728500366211e+00
2.418043327331542969e+01
1.482062101364135742e+00
-3.758141040802001953e+00
-3.562729597091674805e+00
1.292079448699951172e+00
-1.251504778861999512e+00
-5.128752231597900391e+00
-2.354997396469116211e+00
4.478858947753906250e+00
6.498080253601074219e+00
6.136591911315917969e+00
-2.930265426635742188e+00
7.586434483528137207e-01
-1.086299037933349609e+01
-2.789946794509887695e+00
1.721025705337524414e+00
-7.262233734130859375e+00
1.028468012809753418e+00
-5.771694660186767578e+00
-7.676263332366943359e+00
5.373502254486083984e+00
-1.339032053947448730e+00
-4.723281860351562500e+00
-7.980211734771728516e+00
-2.514595985412597656e+00
8.095429539680480957e-01
-4.673357963562011719e+00
-1.105256199836730957e+00
1.302334594726562500e+01
2.248341560363769531e+01
2.899764060974121094e+00
-3.612486362457275391e+00
-2.658235549926757812e+00
5.291440010070800781e+00
-9.003811478614807129e-01
-4.464094638824462891e+00
-6.315985202789306641e+00
-2.034948587417602539e+00
2.657037973403930664e+00
2.233904600143432617e+00
3.166609764099121094e+00
-3.094145059585571289e+00
-9.780943870544433594e+00
4.438696205615997314e-01
4.363071322441101074e-01
2.346800088882446289e+00
-7.145796298980712891e+00
6.047745704650878906e+00
4.264778614044189453e+00
-6.674316406250000000e+00
1.415504741668701172e+01
8.639721870422363281e-01
6.155237674713134766e+00
-3.181692838668823242e+00
4.397462606430053711e-01
1.119877576828002930e+00
2.363870143890380859e+00
3.258665800094604492e+00
1.775991678237915039e+00
2.263344049453735352e+00
7.410715579986572266e+00
7.613406777381896973e-01
-4.313871860504150391e+00
6.751483917236328125e+00
-4.114512443542480469e+00
8.081448554992675781e+00
5.453106403350830078e+00
1.162191963195800781e+01
4.939570426940917969e+00
1.231170058250427246e+00
-4.541980743408203125e+00
1.819032073020935059e+00
-1.088755989074707031e+01
-1.670450091361999512e+00
6.419670581817626953e+00
7.945760726928710938e+00
2.331748962402343750e+00
2.593012332916259766e+00
5.996221303939819336e-01
-2.299783945083618164e+00
4.125317096710205078e+00
2.007633447647094727e+00
-1.691154289245605469e+01
-2.597854137420654297e+00
8.833246231079101562e-01
3.966860294342041016e+00
2.896124124526977539e+00
-3.435107946395874023e+00
-6.960083246231079102e-01
-4.642630100250244141e+00
9.526168823242187500e+00
5.341999530792236328e+00
5.539248585700988770e-01
4.010756492614746094e+00
2.060346126556396484e+00
3.850605964660644531e+00
-1.132625770568847656e+01
2.903136491775512695e+00
-3.263239145278930664e+00
-3.879782438278198242e+00
-3.704370260238647461e+00
1.018679857254028320e+00
5.103893280029296875e+00
3.256591320037841797e+00
6.950440883636474609e+00
1.579498767852783203e+00
-5.558994770050048828e+00
-1.080514621734619141e+01
3.976451635360717773e+00
1.560708284378051758e+00
1.445179581642150879e+00
-1.278033256530761719e+01
-1.337222754955291748e-01
2.729980230331420898e+00
5.007615566253662109e+00
-3.682139635086059570e+00
1.333877444267272949e+00
1.242305397987365723e+00
-2.133979320526123047e+00
-7.733764171600341797e+00
1.726135849952697754e+00
2.178422212600708008e+00
4.181160449981689453e+00
9.198319435119628906e+00
-3.261970996856689453e+00
2.945389509201049805e+00
2.818662643432617188e+00
8.349114060401916504e-01
1.491518592834472656e+01
1.225298881530761719e+00
-4.367909908294677734e+00
3.917417049407958984e+00
3.826537132263183594e+00
-9.112711906433105469e+00
-1.502158880233764648e+00
-9.298773854970932007e-02
-2.343520149588584900e-02
-7.210969924926757812e+00
-2.241584062576293945e+00
8.306753158569335938e+00
-5.054568767547607422e+00
-1.037847042083740234e+01
-1.185859775543212891e+01
-6.956638693809509277e-01
-1.034385204315185547e+01
-4.525345802307128906e+00
7.061244964599609375e+00
2.928102970123291016e+00
-1.229130840301513672e+01
1.940140724182128906e+00
-5.952720642089843750e+00
-4.632248878479003906e+00
-4.815027713775634766e+00
4.585020065307617188e+00
8.366999626159667969e-01
-1.133600711822509766e+01
-5.884697437286376953e+00
6.641265392303466797e+00
-1.713237953186035156e+01
-7.258201122283935547e+00
-5.096366405487060547e+00
-1.140421009063720703e+01
-2.884343624114990234e+00
-4.082556247711181641e+00
-4.065410614013671875e+00
3.302733659744262695e+00
-1.782320261001586914e+00
-1.107980155944824219e+01
1.035967230796813965e+00
-1.860002708435058594e+01
2.792518138885498047e+00
1.608097672462463379e+00
-1.806779861450195312e+00
3.891235589981079102e+00
-2.578082323074340820e+00
-4.864211082458496094e+00
-1.634431838989257812e+00
6.109477281570434570e-01
-6.060781478881835938e+00
3.559049367904663086e+00
2.666350126266479492e+00
1.698667645454406738e+00
-4.790452957153320312e+00
1.003305017948150635e-01
-2.941847801208496094e+00
-4.059023380279541016e+00
-3.746289730072021484e+00
1.649563431739807129e+00
2.379234075546264648e+00
-9.186414718627929688e+00
-9.718242645263671875e+00
-1.006593799591064453e+01
-7.276717662811279297e+00
-2.757167100906372070e+00
1.403306245803833008e+00
5.610574245452880859e+00
-2.500244379043579102e+00
-2.270032167434692383e+00
5.922505855560302734e+00
1.831147789955139160e+00
6.958211421966552734e+00
2.764060735702514648e+00
-6.190561294555664062e+00
6.265107154846191406e+00
3.308929920196533203e+00
8.054697036743164062e+00
1.488617300987243652e+00
4.384499549865722656e+00
-3.897799968719482422e+00
-1.993035435676574707e+00
1.163802623748779297e+01
4.028318822383880615e-01
5.453331947326660156e+00
1.987208962440490723e+00
1.362580776214599609e+01
-3.953881025314331055e+00
1.140191197395324707e+00
6.797439098358154297e+00
-4.254087924957275391e+00
1.567425012588500977e+00
-1.384604549407958984e+01
1.375771760940551758e+00
6.478850841522216797e+00
-8.642697334289550781e-01
-2.909581899642944336e+00
-7.858078002929687500e+00
-3.291846275329589844e+00
3.905155181884765625e+00
1.363383769989013672e+00
5.107336044311523438e+00
-4.949151039123535156e+00
-7.850759029388427734e+00
4.103877067565917969e+00
-1.145107984542846680e+00
-7.322699069976806641e+00
1.047831892967224121e+00
1.272863006591796875e+01
5.201747417449951172e+00
-9.319008827209472656e+00
1.252005386352539062e+01
-1.773976087570190430e+00
2.014817476272583008e+00
-4.522411823272705078e+00
4.871924877166748047e+00
1.186716079711914062e+01
-3.271268844604492188e+00
-4.675806999206542969e+00
1.126796054840087891e+01
6.174307823181152344e+00
-5.682622194290161133e-01
3.761052846908569336e+00
-3.980049610137939453e+00
-2.703116607666015625e+01
-2.149024724960327148e+00
5.316353321075439453e+00
-6.382315158843994141e+00
1.764540314674377441e+00
-3.377799510955810547e+00
-7.850252628326416016e+00
-1.189487934112548828e+00
-8.776867389678955078e-02
-1.718295179307460785e-02
-2.064234018325805664e+00
-4.539502620697021484e+00
-7.132062315940856934e-01
2.463966369628906250e+00
1.207882642745971680e+00
1.457567811012268066e+00
-2.197107113897800446e-02
4.755316734313964844e+00
4.812745571136474609e+00
-1.135327434539794922e+01
-5.800545811653137207e-01
5.969848632812500000e+00
-2.912354283034801483e-02
-5.937965393066406250e+00
8.784101486206054688e+00
-3.675260543823242188e+00
-5.906583786010742188e+00
-7.081244468688964844e+00
5.442438602447509766e+00
-1.911212682723999023e+00
-8.712035417556762695e-01
7.002936840057373047e+00
3.591799259185791016e+00
-1.173773574829101562e+01
1.316879844665527344e+01
4.778153821825981140e-02
4.505108356475830078e+00
4.864820539951324463e-01
-9.810004234313964844e+00
-1.793251037597656250e+00
-4.795478343963623047e+00
3.393541812896728516e+00
-7.396497249603271484e+00
-2.023684978485107422e+00
-6.905258655548095703e+00
5.526096820831298828e+00
1.759589672088623047e+00
4.844565391540527344e+00
-8.685361593961715698e-02
1.421241998672485352e+00
4.723789691925048828e+00
-1.495587944984436035e+00
4.382184028625488281e+00
-1.663766622543334961e+00
-1.361649394035339355e+00
-1.218042969703674316e+00
5.635819435119628906e+00
4.780935764312744141e+00
5.390390396118164062e+00
1.048999977111816406e+01
1.830087542533874512e+00
-2.140733718872070312e+00
-1.007126688957214355e+00
2.464982986450195312e+00
-4.663663864135742188e+00
-2.953062295913696289e+00
7.684257030487060547e+00
-3.200300931930541992e+00
-4.142095565795898438e+00
3.245178604125976562e+01
-4.521504878997802734e+00
4.931769371032714844e+00
-8.119958043098449707e-01
-3.444568872451782227e+00
-1.473985290527343750e+01
-2.670091390609741211e+00
2.705693244934082031e+00
-9.192625045776367188e+00
1.353713393211364746e+00
-7.606937885284423828e+00
-2.723814725875854492e+00
2.044461822509765625e+01
-2.857702255249023438e+00
2.526498079299926758e+00
-2.103710323572158813e-01
1.024885773658752441e+00
-2.390681356191635132e-01
-4.313862800598144531e+00
1.501680612564086914e+00
-1.779917478561401367e+00
9.751328468322753906e+00
1.721273183822631836e+00
5.162269115447998047e+00
-4.277402400970458984e+00
9.769187927246093750e+00
-7.208318233489990234e+00
-9.270151257514953613e-01
4.336149215698242188e+00
-3.206018209457397461e-01
-8.451520204544067383e-01
-1.705769896507263184e+00
6.410271525382995605e-01
-5.321815490722656250e+00
2.873816251754760742e+00
-1.679755449295043945e+00
-3.220159530639648438e+00
-7.970657944679260254e-01
1.136568784713745117e+00
-1.882013797760009766e+00
-9.255863428115844727e-01
-1.507330179214477539e+00
5.307563021779060364e-02
-2.946872711181640625e+00
1.624697923660278320e+00
-1.061975002288818359e+00
-4.849081516265869141e+00
-7.078724384307861328e+00
3.351396560668945312e+00
-3.484169244766235352e+00
1.792369651794433594e+01
4.845530986785888672e-01
-6.423348903656005859e+00
-8.633388519287109375e+00
-3.824691057205200195e+00
1.212648868560791016e+01
-2.066138029098510742e+00
2.959964990615844727e+00
-5.842681884765625000e+00
4.118947982788085938e+00
1.105721282958984375e+01
7.674477577209472656e+00
3.584565877914428711e+00
-7.919887900352478027e-01
4.638961791992187500e+00
-1.098903942108154297e+01
-6.455551147460937500e+00
4.309882640838623047e+00
-2.390999317169189453e+00
7.685170650482177734e+00
-4.885319769382476807e-01
-6.873105049133300781e+00
1.540600776672363281e+01
-1.539852619171142578e-01
4.645915508270263672e+00
1.169338893890380859e+01
2.731753826141357422e+00
-3.362480878829956055e+00
-2.552245140075683594e+00
-6.692739486694335938e+00
-2.552148342132568359e+00
2.593512535095214844e+00
-3.627890825271606445e+00
-3.688865184783935547e+00
-8.032554626464843750e+00
-7.647945284843444824e-01
8.183361887931823730e-01
-2.561905860900878906e+01
-2.301719665527343750e+00
7.828102111816406250e-01
-6.724854469299316406e+00
-2.123439636230468750e+02
-5.617889881134033203e+00
-2.974904060363769531e+00
-1.464386177062988281e+01
5.433627128601074219e+00
-3.471239089965820312e+00
-2.280628919601440430e+00
3.917644262313842773e+00
-3.095813274383544922e+00
-3.003884792327880859e+00
-2.431168317794799805e+00
1.257998943328857422e+00
6.068836688995361328e+00
-6.200254917144775391e+00
-2.823254823684692383e+00
-9.826313972473144531e+00
-5.223632812500000000e+00
-1.660410612821578979e-01
1.674157619476318359e+00
-1.194367504119873047e+01
1.991878390312194824e+00
-2.776515185832977295e-01
-6.553410291671752930e-01
4.796531677246093750e+00
7.868057727813720703e+00
6.332345008850097656e+00
-5.516995906829833984e+00
2.110190868377685547e+00
2.495229244232177734e+00
6.441351771354675293e-01
-2.970368623733520508e+00
2.373735189437866211e+00
-1.243365573883056641e+01
-4.277032375335693359e+00
-6.563000202178955078e+00
-6.122527599334716797e+00
-1.216782093048095703e+00
-6.165825843811035156e+00
1.986544847488403320e+00
-6.566196441650390625e+00
-8.359109878540039062e+00
-2.166120052337646484e+00
1.561967754364013672e+01
2.718763351440429688e+00
1.209559202194213867e+00
-4.904566287994384766e+00
5.362912654876708984e+00
-4.139392852783203125e+00
5.358889579772949219e+00
2.188413858413696289e+00
-5.180965900421142578e+00
1.380746603012084961e+00
-1.454911828041076660e+00
-1.034366703033447266e+01
5.736876010894775391e+00
5.320409297943115234e+00
-2.314496994018554688e+00
-2.286267518997192383e+00
-8.215370178222656250e+00
-1.929246139526367188e+01
-2.663942575454711914e+00
1.304409027099609375e+00
-6.939841270446777344e+00
-2.586367845535278320e+00
5.023981332778930664e-01
1.529269292950630188e-02
7.596543312072753906e+00
-4.119897842407226562e+00
5.426452636718750000e+00
9.873036384582519531e+00
2.176338195800781250e+00
6.646730422973632812e+00
-3.598263978958129883e+00
3.701014757156372070e+00
6.575979232788085938e+00
-4.403894424438476562e+00
-4.231832981109619141e+00
6.411689758300781250e+00
-1.174505805969238281e+01
-2.862340927124023438e+00
-9.538531899452209473e-01
9.748877286911010742e-01
-5.921061515808105469e+00
4.438089847564697266e+00
-4.547755718231201172e+00
-9.491433143615722656e+00
3.619971036911010742e+00
-4.243672847747802734e+00
1.958917975425720215e+00
4.817349910736083984e+00
4.243906974792480469e+00
3.259091567993164062e+01
9.061742424964904785e-01
3.843857049942016602e+00
2.267639338970184326e-01
-2.639734983444213867e+00
-1.163539409637451172e+00
9.824047088623046875e-01
4.014595508575439453e+00
2.886568069458007812e+00
6.656667232513427734e+00
-2.348461866378784180e+00
-1.313251495361328125e+00
-1.318616676330566406e+01
6.022160649299621582e-01
3.029593706130981445e+00
-4.234810829162597656e+00
-2.888073027133941650e-01
-4.136395454406738281e+00
-5.322789192199707031e+00
5.940450191497802734e+00
-2.276327371597290039e+00
-3.337885141372680664e-01
-1.085403084754943848e+00
1.877348542213439941e+00
-2.071565866470336914e+00
1.775741338729858398e+00
-1.232207202911376953e+01
-8.877425193786621094e-01
4.810778498649597168e-01
2.904332876205444336e+00
5.489841461181640625e+00
-1.043864631652832031e+01
-1.097867131233215332e+00
-7.913781642913818359e+00
-1.022369289398193359e+01
-7.647480964660644531e-01
1.391306281089782715e+00
-2.926619768142700195e+00
-4.358513951301574707e-01
-9.149915695190429688e+00
6.182682514190673828e+00
-1.187770366668701172e+01
1.398291110992431641e+00
-1.323226839303970337e-02
8.516563415527343750e+00
8.720742166042327881e-02
1.740180969238281250e+00
-2.978963851928710938e+00
-6.450212478637695312e+00
4.984766960144042969e+00
2.876370668411254883e+00
-7.386491298675537109e-01
-1.448832869529724121e+00
-6.671346187591552734e+00
-6.805933117866516113e-01
-3.417441129684448242e+00
-5.191323280334472656e+00
1.107643961906433105e+00
-6.974930286407470703e+00
-2.836131334304809570e+00
-3.008449792861938477e+00
2.108526229858398438e+00
-2.295063972473144531e+00
-6.437294006347656250e+00
4.790817737579345703e+00
-1.542847633361816406e+00
6.876973509788513184e-01
2.490432739257812500e+00
-6.812763214111328125e+00
-1.060472011566162109e+01
1.175288391113281250e+01
-8.811975479125976562e+00
2.506841468811035156e+01
3.409267216920852661e-02
4.602455615997314453e+00
3.333001613616943359e+00
3.659894704818725586e+00
-5.700030803680419922e+00
2.883630037307739258e+00
-9.116054177284240723e-01
-2.715110063552856445e+00
2.663784742355346680e+00
-6.606255054473876953e+00
3.188913822174072266e+00
9.421826004981994629e-01
-1.986007690429687500e+02
-6.024862766265869141e+00
-4.660264968872070312e+00
2.490485572814941406e+01
-9.394716620445251465e-01
-1.565983414649963379e+00
5.029047489166259766e+00
5.803943872451782227e-01
4.992251873016357422e+00
-1.804780066013336182e-01
-3.534853219985961914e+00
3.008408546447753906e+00
-5.117260456085205078e+00
-6.589076995849609375e+00
8.740159869194030762e-01
-1.219979882240295410e+00
-5.352850914001464844e+00
-3.284091711044311523e+00
-4.742139875888824463e-01
-1.951135253906250000e+01
4.266157150268554688e-01
6.141413688659667969e+00
-1.463541746139526367e+00
-7.049701690673828125e+00
-3.088437080383300781e+00
-2.381841897964477539e+00
8.165438771247863770e-01
-3.243548631668090820e+00
2.743593156337738037e-01
-1.238520145416259766e+00
2.204766273498535156e+00
-1.437446236610412598e+00
2.139339685440063477e+00
2.137905359268188477e+00
-2.832787513732910156e+00
6.465120315551757812e-01
-4.831267356872558594e+00
-6.839074134826660156e+00
1.715284538269042969e+01
-1.953421020507812500e+01
-2.473442554473876953e+00
-4.466913640499114990e-01
-1.958360075950622559e+00
-3.170609712600708008e+00
6.818696022033691406e+00
1.687362551689147949e+00
-9.106780052185058594e+00
-7.208994388580322266e+00
-3.250126600265502930e+00
-4.710544586181640625e+00
3.118319988250732422e+00
1.164601668715476990e-01
5.346313476562500000e+00
-2.746469497680664062e+00
-7.096862316131591797e+00
1.399733352661132812e+01
-3.122100114822387695e+00
1.126450824737548828e+01
6.265670299530029297e+00
3.416692495346069336e+00
4.148268222808837891e+00
-6.517148017883300781e-01
-1.123360443115234375e+01
-1.974229812622070312e+01
-2.802685260772705078e+00
3.239818954467773438e+01
2.093547821044921875e+00
-3.280170679092407227e+00
1.805391073226928711e+00
-1.088108569383621216e-01
-2.971753835678100586e+00
5.241469666361808777e-02
-3.504978120326995850e-01
-2.288719117641448975e-01
4.177378177642822266e+00
-2.079338073730468750e+00
2.174009799957275391e+00
1.529072880744934082e+00
1.028674840927124023e+00
-2.904755353927612305e+00
3.036599397659301758e+00
1.523560047149658203e+01
-1.045812797546386719e+01
-1.837604761123657227e+00
5.465745329856872559e-01
7.127177715301513672e+00
1.122443199157714844e+01
9.648173332214355469e+00
-1.865843772888183594e+01
8.500905990600585938e+00
-4.745275497436523438e+00
4.967967987060546875e+00
-2.595889806747436523e+00
-5.481985092163085938e+00
2.178052663803100586e+00
6.637975692749023438e+00
-5.990646362304687500e+00
-4.546869754791259766e+00
6.847237944602966309e-01
1.494556045532226562e+01
6.754828989505767822e-02
-1.328013181686401367e+00
-5.297494888305664062e+00
2.083344459533691406e+00
1.011960983276367188e+01
3.513412237167358398e+00
1.805713081359863281e+01
3.504162132740020752e-01
-6.563169956207275391e+00
2.564767003059387207e-01
-3.252075910568237305e+00
5.911725163459777832e-01
-2.041900873184204102e+00
-1.413903427124023438e+01
8.364572525024414062e+00
2.945154428482055664e+00
-4.057717800140380859e+00
4.496090888977050781e+00
1.614729404449462891e+00
-5.340142250061035156e+00
1.089732170104980469e+00
9.451551437377929688e-01
-7.423381328582763672e+00
-1.762395477294921875e+01
2.766573905944824219e+00
-9.687255859375000000e+00
-5.951175212860107422e+00
9.268078804016113281e+00
