-3.374495744705200195e+00
-2.882738828659057617e+00
2.858267021179199219e+01
1.928951859474182129e+00
-5.560979843139648438e-01
-7.724249362945556641e+00
5.031143426895141602e-01
-1.212194204330444336e+00
-7.882815837860107422e+00
-3.846185684204101562e+00
4.049495220184326172e+00
4.921939849853515625e+00
-8.595946311950683594e+00
1.774597048759460449e+00
4.023594379425048828e+00
6.036589145660400391e-01
4.233551502227783203e+00
2.995822668075561523e+00
2.153079211711883545e-02
-3.500121831893920898e+00
-1.064540520310401917e-01
-1.302054762840270996e+00
-7.510871410369873047e+00
-7.150153636932373047e+00
-4.173876762390136719e+00
-4.901629924774169922e+00
1.185014247894287109e+00
-5.967363357543945312e+00
-5.405440807342529297e+00
1.511694073677062988e+00
-6.700489997863769531e+00
2.216916322708129883e+00
-3.615386784076690674e-02
7.816380977630615234e+00
-5.290549278259277344e+00
5.414812088012695312e+00
-3.638101518154144287e-01
2.104477956891059875e-02
-2.768107175827026367e+00
-6.835294246673583984e+00
-7.183515071868896484e+00
-8.192927360534667969e+00
2.090703010559082031e+00
-4.961571693420410156e+00
-8.952768325805664062e+00
-2.397979736328125000e+00
9.303069114685058594e-01
-3.965699672698974609e+00
-3.501520678400993347e-02
-3.478167295455932617e+00
5.399481058120727539e-01
-4.718302726745605469e+00
4.337735176086425781e-01
1.177964091300964355e+00
-4.111006736755371094e+00
5.278018951416015625e+00
-6.470839977264404297e+00
-4.943426132202148438e+00
-1.007832527160644531e+01
-9.062199294567108154e-02
3.738138675689697266e-01
-1.281262874603271484e+00
2.609120130538940430e+00
6.085357189178466797e+00
-3.304038524627685547e+00
2.542107105255126953e+00
-9.095293998718261719e+00
7.173637151718139648e-01
4.232230663299560547e+00
-1.217685818672180176e+00
1.413266062736511230e+00
-4.210617542266845703e+00
2.134945631027221680e+00
-2.500277757644653320e+00
5.376951694488525391e+00
2.610112428665161133e+00
4.745814502239227295e-01
3.955640792846679688e+00
-5.429464340209960938e+00
-7.912861824035644531e+00
-5.623267173767089844e+00
-1.085721611976623535e+00
-5.137054443359375000e+00
-8.104437828063964844e+00
-9.675671577453613281e+00
8.428796768188476562e+00
1.552091360092163086e+00
6.040365695953369141e+00
2.470066845417022705e-01
-1.140366077423095703e+00
1.064579677581787109e+01
1.591242027282714844e+01
-2.405639648437500000e+01
-4.411077499389648438e+00
-8.290122151374816895e-01
-2.636224031448364258e+00
-4.901649475097656250e+00
-5.292265415191650391e+00
-7.724242210388183594e+00
-1.882250189781188965e+00
-4.549993038177490234e+00
8.160938262939453125e+00
4.384117126464843750e+00
-5.789233684539794922e+00
-4.108070373535156250e+00
2.948318862915039062e+01
1.150774717330932617e+00
-1.781644940376281738e+00
5.916228294372558594e+00
-1.201164722442626953e-01
2.448984384536743164e+00
3.890259265899658203e+00
1.008827400207519531e+01
1.318033313751220703e+01
4.999322891235351562e+00
-5.175160408020019531e+00
1.090214133262634277e+00
1.582656741142272949e+00
-6.617650032043457031e+00
-3.904849052429199219e+00
-2.213497877120971680e+00
4.105944633483886719e+00
-6.868704795837402344e+00
-3.223501682281494141e+00
-3.257767200469970703e+00
2.055594444274902344e+00
-5.590740203857421875e+00
-1.898206520080566406e+01
8.038063049316406250e+00
2.010603189468383789e+00
-5.814664363861083984e+00
-5.553356409072875977e-01
5.820168018341064453e+00
-1.713309288024902344e+00
-3.028929471969604492e+00
-3.050583600997924805e+00
-1.535006332397460938e+01
1.932303071022033691e+00
-1.479912662506103516e+01
-5.888991832733154297e+00
-8.155150413513183594e+00
-6.308279037475585938e-01
-2.510003745555877686e-01
-2.751284360885620117e+00
3.964869499206542969e+00
-4.069001197814941406e+00
2.944619059562683105e-01
7.781290054321289062e+00
-6.332281589508056641e+00
-3.162695407867431641e+00
5.121743679046630859e+00
-7.244627922773361206e-03
-3.479425430297851562e+00
2.181935787200927734e+00
-1.969391465187072754e+00
-6.057716608047485352e-01
4.774248301982879639e-01
-5.889405727386474609e+00
9.031785011291503906e+00
-5.241137027740478516e+00
3.561625003814697266e+00
-2.027501106262207031e+00
-6.953207969665527344e+00
7.008763790130615234e+00
-4.978823363780975342e-01
-1.968211293220520020e+00
-6.707221984863281250e+00
1.353880405426025391e+01
-1.550651192665100098e+00
-5.495615005493164062e+00
-8.843257904052734375e+00
4.851171016693115234e+00
-7.413435459136962891e+00
-3.346475362777709961e+00
1.116323828697204590e+00
5.792811393737792969e+00
-1.271240997314453125e+01
-1.281583428382873535e+00
-8.478683471679687500e+00
-4.519804954528808594e+00
-1.238985824584960938e+01
2.940301179885864258e+00
-3.990214586257934570e+00
3.458601474761962891e+00
8.030610084533691406e+00
8.583612442016601562e+00
-1.163571643829345703e+01
-1.104576396942138672e+01
6.694369912147521973e-01
-4.657742023468017578e+00
-4.394602775573730469e+00
7.304752826690673828e+00
5.613895893096923828e+00
-3.257979631423950195e+00
-1.259180831909179688e+01
-8.258893013000488281e+00
2.787060499191284180e+00
2.264161109924316406e+00
-2.220174789428710938e+00
2.412760019302368164e+00
2.446267127990722656e+00
-2.086327314376831055e+00
-9.370053291320800781e+00
2.734646081924438477e+00
-8.372187614440917969e+00
7.987518310546875000e+00
1.705449938774108887e+00
-1.103143334388732910e+00
5.940916061401367188e+00
4.281419795006513596e-03
-6.841629505157470703e+00
6.467888832092285156e+00
9.331229209899902344e+00
-1.343567967414855957e+00
-6.884290695190429688e+00
-5.303943157196044922e+00
-3.873400926589965820e+00
8.756423950195312500e+00
5.374557495117187500e+00
-1.105675697326660156e+00
-1.054027318954467773e+00
-2.862167835235595703e+00
-7.852237701416015625e+00
1.830161476135253906e+01
3.422957658767700195e+00
-3.578558206558227539e+00
-2.197560787200927734e+00
-2.120198756456375122e-01
-1.291540145874023438e+01
-4.549422860145568848e-01
-3.049596548080444336e+00
-1.832117652893066406e+01
-6.652926445007324219e+00
-9.787560105323791504e-01
7.219193577766418457e-01
-5.578256607055664062e+00
-7.697570323944091797e+00
-2.121364440917968750e+02
-4.302237033843994141e+00
-1.204789280891418457e+00
-4.784574508666992188e+00
9.365443229675292969e+00
-6.924457103013992310e-02
-8.299653530120849609e-01
-2.516441583633422852e+00
-4.199619591236114502e-01
4.549941539764404297e+00
4.787603378295898438e+00
4.848492518067359924e-02
-2.417908668518066406e+00
9.390577316284179688e+00
-1.010250568389892578e+00
-8.105934143066406250e+00
-4.915117263793945312e+00
-1.972350478172302246e+00
4.542916774749755859e+00
-2.940425872802734375e+00
-1.302901983261108398e+00
1.373959350585937500e+01
-8.148405075073242188e+00
1.693774461746215820e+00
-6.215019822120666504e-01
-2.142362823486328125e+02
-2.014164209365844727e+00
-9.722405433654785156e+00
-4.442136287689208984e+00
1.959080886840820312e+01
2.126001596450805664e+00
-4.913243770599365234e+00
-1.780333638191223145e+00
-3.377109527587890625e+00
-5.414109230041503906e+00
-4.964966773986816406e+00
8.846202850341796875e+00
-5.165325164794921875e+00
-2.409290075302124023e+00
3.938200950622558594e+00
1.101137924194335938e+01
-6.298919677734375000e+00
-1.119519829750061035e+00
-5.609184503555297852e-01
8.890699744224548340e-01
5.845816612243652344e+00
-5.470378398895263672e+00
6.050588130950927734e+00
-1.174122810363769531e+01
1.465088367462158203e+00
4.595321655273437500e+00
-1.872978401184082031e+01
1.420485377311706543e+00
-5.576069831848144531e+00
1.553861021995544434e+00
1.485886693000793457e+00
-1.747327804565429688e+00
8.135447502136230469e+00
-4.611601352691650391e+00
-6.789635658264160156e+00
-5.198156833648681641e+00
-8.982540130615234375e+00
-5.406088829040527344e+00
-3.212453603744506836e+00
6.577671766281127930e-01
-1.229365348815917969e+00
-2.735073804855346680e+00
2.120532989501953125e+00
4.188776016235351562e+00
5.867983341217041016e+00
7.123677730560302734e+00
-5.552943706512451172e+00
2.763747453689575195e+00
4.425424098968505859e+00
1.434297800064086914e+00
-1.367771720886230469e+01
-5.381031513214111328e+00
-1.198677730560302734e+01
-1.359123706817626953e+00
-6.020311832427978516e+00
-1.299032866954803467e-01
-4.750671863555908203e+00
5.526487231254577637e-01
8.448047637939453125e-01
-1.369900941848754883e+00
1.722790598869323730e+00
-3.017521142959594727e+00
-4.755479812622070312e+00
-5.315362453460693359e+00
1.133944034576416016e+01
3.786068201065063477e+00
-4.960230350494384766e+00
7.321760177612304688e+00
-7.925266742706298828e+00
9.160403013229370117e-01
-5.822607994079589844e+00
-5.406137466430664062e+00
-1.186456012725830078e+01
-2.627707481384277344e+00
-4.126087665557861328e+00
-5.337265878915786743e-02
3.699593842029571533e-01
2.192310571670532227e+00
1.314099550247192383e+00
3.052243947982788086e+00
4.613572120666503906e+00
2.094569683074951172e+00
-5.681904792785644531e+00
2.791838884353637695e+00
-5.017907619476318359e+00
6.263412475585937500e+00
-3.460942268371582031e+00
4.323195934295654297e+00
-7.091898918151855469e+00
-4.935395717620849609e+00
1.085851907730102539e+00
2.168062210083007812e+00
-2.183662891387939453e+00
-2.839234113693237305e+00
-6.847608089447021484e+00
6.459619045257568359e+00
-8.407433509826660156e+00
3.066264867782592773e+00
2.260066747665405273e+00
5.108397006988525391e+00
3.084178447723388672e+00
-2.305460214614868164e+00
-8.765046119689941406e+00
-2.745163142681121826e-01
-1.532909774780273438e+01
-4.434703826904296875e+00
1.686082601547241211e+00
4.370823383331298828e+00
-1.870163679122924805e+00
-5.432822227478027344e+00
6.111037254333496094e+00
-5.130273848772048950e-02
-8.977159500122070312e+00
-1.513988494873046875e+00
4.645186901092529297e+00
3.575582027435302734e+00
1.428428292274475098e+00
4.978019237518310547e+00
1.186080074310302734e+01
3.494562864303588867e+00
2.835704088211059570e-01
2.373707771301269531e+00
5.588100433349609375e+00
-2.130404233932495117e+00
-3.646747827529907227e+00
1.422910809516906738e+00
-2.999935865402221680e+00
-1.006140136718750000e+01
2.915126562118530273e+00
2.582407951354980469e+01
2.883437156677246094e+00
2.080260992050170898e+00
7.952774524688720703e+00
5.166821002960205078e+00
8.238608360290527344e+00
-8.131902813911437988e-01
4.696173965930938721e-02
9.472377300262451172e-01
2.034422683715820312e+01
-2.308870792388916016e+00
5.974522978067398071e-02
5.575743198394775391e+00
-3.936310410499572754e-01
1.101015686988830566e+00
8.225334286689758301e-01
3.024756669998168945e+00
9.388501167297363281e+00
1.490658664703369141e+01
-7.701508045196533203e+00
8.418517112731933594e-01
4.190027713775634766e+00
-5.653730392456054688e+00
1.132863998413085938e+00
-8.115287780761718750e+00
-8.049939155578613281e+00
3.101427316665649414e+00
-8.100356101989746094e+00
8.705801010131835938e+00
-9.240996360778808594e+00
7.605520725250244141e+00
6.567896842956542969e+00
-2.904344558715820312e+00
8.548385500907897949e-01
1.192823600769042969e+01
-9.090591430664062500e+00
-9.530755281448364258e-01
7.976344108581542969e+00
-2.898859024047851562e+00
1.477435469627380371e+00
6.891313195228576660e-01
8.129993081092834473e-02
3.390420079231262207e-01
-2.383500099182128906e+01
2.549592971801757812e+00
-5.495945930480957031e+00
8.417258858680725098e-01
-5.349197864532470703e+00
3.620722293853759766e-01
-1.738683819770812988e+00
2.167215585708618164e+00
7.725941658020019531e+00
1.115820980072021484e+01
-9.086016654968261719e+00
-5.781162738800048828e+00
3.800994634628295898e+00
5.696744441986083984e+00
1.642618370056152344e+01
-9.121809959411621094e+00
5.044365882873535156e+00
-1.039921641349792480e-01
-5.235738277435302734e+00
6.461117267608642578e-01
1.177410411834716797e+01
-9.479970932006835938e+00
-7.490686893463134766e+00
2.059766054153442383e+00
5.146493434906005859e+00
3.326740860939025879e-01
-1.009942054748535156e+00
7.590788364410400391e+00
-3.857206821441650391e+00
5.269047737121582031e+00
2.233775854110717773e-01
-8.313111305236816406e+00
-7.974153995513916016e+00
-6.313099384307861328e+00
2.074543952941894531e+00
4.002304077148437500e+00
-4.107542037963867188e+00
-8.958671569824218750e+00
2.757507324218750000e+00
5.708355903625488281e+00
-2.744099855422973633e+00
2.277952909469604492e+00
-1.053730607032775879e+00
-1.188966333866119385e-01
3.026696205139160156e+00
-1.338025808334350586e+00
5.061527252197265625e+00
-2.890877723693847656e+00
-7.638411998748779297e+00
6.571849822998046875e+00
-1.314535379409790039e+00
-1.366758465766906738e+00
-6.365063190460205078e-01
-1.110878562927246094e+01
1.046872997283935547e+01
-6.440773010253906250e+00
-5.150369644165039062e+00
-1.088501739501953125e+01
3.294369697570800781e+00
-1.662585377693176270e+00
6.006307601928710938e+00
7.635039806365966797e+00
-6.852503776550292969e+00
1.373904705047607422e+00
-4.906182289123535156e+00
-8.089211463928222656e+00
3.847998380661010742e+00
-3.498416662216186523e+00
-8.702349662780761719e+00
-3.314655303955078125e+00
4.421622753143310547e+00
-5.058124065399169922e+00
-3.068020582199096680e+00
2.312293529510498047e+00
-1.388949775695800781e+01
2.956362906843423843e-03
1.049311637878417969e+00
-6.983812332153320312e+00
-7.597169876098632812e+00
-3.047309875488281250e+00
7.447992324829101562e+00
-1.194481086730957031e+01
1.584730267524719238e+00
-6.050706505775451660e-01
-6.971981048583984375e+00
-8.695026397705078125e+00
7.185752868652343750e+00
-4.619504451751708984e+00
-1.245133280754089355e+00
2.510774374008178711e+00
-4.722488403320312500e+00
-6.913937091827392578e+00
-7.134336471557617188e+00
-7.703846931457519531e+00
-1.622984504699707031e+01
-2.728152513504028320e+00
-2.688080787658691406e+00
5.290426015853881836e-01
-1.594589948654174805e+00
4.654459476470947266e+00
3.527687788009643555e+00
5.110808372497558594e+00
4.665876865386962891e+00
2.967034578323364258e+00
-3.664946556091308594e+00
-3.206424474716186523e+00
3.133764028549194336e+00
-1.963498950004577637e+00
5.824434757232666016e-01
-4.080298900604248047e+00
4.238232612609863281e+00
6.043686389923095703e+00
-1.088036775588989258e+00
1.058584976196289062e+01
-1.006504058837890625e+01
-1.629876708984375000e+01
3.564401626586914062e+00
3.307861804962158203e+00
1.686776518821716309e+00
1.376777410507202148e+00
7.925634384155273438e+00
1.207257390022277832e+00
-7.673959732055664062e+00
1.117396235466003418e+00
3.420560121536254883e+00
5.713413357734680176e-01
-4.154130935668945312e+00
-1.941085338592529297e+00
-9.908508300781250000e+00
1.544953465461730957e+00
-4.710522174835205078e+00
9.230514615774154663e-02
-1.139250373840332031e+01
-6.793739795684814453e+00
-4.605665206909179688e+00
-4.575606822967529297e+00
2.849420547485351562e+00
7.226997613906860352e-01
2.960338354110717773e+00
1.186897993087768555e+00
4.162981033325195312e+00
1.249706649780273438e+01
-5.737824916839599609e+00
1.234733462333679199e+00
-1.270561814308166504e+00
2.612029075622558594e+00
-4.480894088745117188e+00
2.618351280689239502e-01
7.304526329040527344e+00
-1.219624519348144531e+00
-4.032470226287841797e+00
1.186350536346435547e+01
-6.039744377136230469e+00
-1.811065316200256348e+00
2.036845922470092773e+00
3.537252902984619141e+00
-4.104742407798767090e-01
1.207367038726806641e+01
2.807042121887207031e+00
-6.733794212341308594e+00
-8.808317184448242188e+00
-2.339759349822998047e+00
3.192704916000366211e+00
-4.790608882904052734e+00
-8.167523741722106934e-01
-5.273606777191162109e-01
-3.448899507522583008e+00
-9.576352119445800781e+00
6.242361664772033691e-01
1.712670683860778809e+00
6.390470504760742188e+00
-6.521352767944335938e+00
4.487651348114013672e+00
-4.679473340511322021e-01
-1.310931086540222168e+00
-1.020146751403808594e+01
-4.934809684753417969e+00
1.394711732864379883e-01
-1.664941608905792236e-01
-9.457405805587768555e-01
-8.420523643493652344e+00
5.009385585784912109e+00
5.669670581817626953e+00
-4.398880004882812500e+00
-7.472666740417480469e+00
-4.899012565612792969e+00
3.019682407379150391e+00
1.738612365722656250e+01
-9.605240821838378906e+00
1.087234592437744141e+01
1.019520263671875000e+02
1.203941702842712402e+00
-6.384261131286621094e+00
-7.105490684509277344e+00
-9.079276084899902344e+00
-3.825734376907348633e+00
2.545027494430541992e+00
-2.933544874191284180e+00
-1.753915309906005859e+00
7.218282222747802734e-01
-4.938841819763183594e+00
-4.556913375854492188e+00
-5.252684116363525391e+00
-1.169716954231262207e+00
1.125880241394042969e+01
-6.111557960510253906e+00
2.052021026611328125e+00
-6.489275455474853516e+00
6.186803340911865234e+00
1.285273265838623047e+01
-4.257887840270996094e+00
1.159257316589355469e+01
-4.008842945098876953e+00
-2.923772811889648438e+00
3.641307353973388672e+00
-1.096540641784667969e+01
1.252896785736083984e+01
-2.351143598556518555e+00
5.422242164611816406e+00
-1.320035552978515625e+01
-5.949725151062011719e+00
-1.555811047554016113e+00
2.545565128326416016e+00
-1.560746312141418457e+00
9.290699005126953125e+00
-7.711747169494628906e+00
-7.655333876609802246e-01
1.111259937286376953e+00
2.929247379302978516e+00
-8.284836769104003906e+00
7.090738296508789062e+00
-5.039184093475341797e+00
-1.815638422966003418e+00
-5.936534881591796875e+00
-2.518055915832519531e+00
-5.377956390380859375e+00
3.675369977951049805e+00
-1.570657968521118164e+00
-2.785487771034240723e-01
1.328375816345214844e+00
-2.214804887771606445e+00
-1.581477284431457520e+00
1.639372348785400391e+00
3.205701828002929688e+00
2.901053190231323242e+00
-1.327060461044311523e+00
9.360801696777343750e+00
-1.419392347335815430e+00
-5.709765434265136719e+00
9.785666465759277344e+00
2.115380668640136719e+01
1.003449916839599609e+01
-2.382143783569335938e+01
-4.302118718624114990e-01
-3.650242090225219727e+00
-1.852973580360412598e+00
2.593482732772827148e+00
-2.880139827728271484e+00
-1.968277096748352051e+00
5.587653160095214844e+00
-3.019981384277343750e+00
-3.882844924926757812e+00
5.167776584625244141e+00
3.760071039199829102e+00
-2.980668544769287109e-01
1.263658881187438965e+00
-1.360895872116088867e+00
-1.869318127632141113e+00
4.497918128967285156e+00
-9.107057571411132812e+00
2.175070762634277344e+00
2.172357082366943359e+00
6.504111289978027344e+00
-1.553414613008499146e-01
-4.238636016845703125e+00
-1.193952441215515137e+00
-7.801277160644531250e+00
-7.368958592414855957e-01
-1.101154613494873047e+01
1.390364074707031250e+01
-1.716237425804138184e+00
8.536821007728576660e-01
-5.560129165649414062e+00
2.107079744338989258e+00
-6.382783889770507812e+00
-2.348862171173095703e+00
6.041708588600158691e-01
3.943512201309204102e+00
1.517892479896545410e+00
-1.119608163833618164e+00
-2.969827413558959961e+00
3.228236436843872070e+00
-9.021433591842651367e-01
-1.547070145606994629e+00
-3.130273520946502686e-01
-2.938261985778808594e+00
-1.100882515311241150e-02
-1.244929134845733643e-01
-9.981243014335632324e-01
5.692482948303222656e+00
6.195625066757202148e-01
2.724639177322387695e+00
1.147947311401367188e+01
-8.528753280639648438e+00
4.839394569396972656e+00
-1.560226440429687500e+01
-8.542145729064941406e+00
-3.335028886795043945e+00
1.143417581915855408e-01
4.260508537292480469e+00
-5.827439785003662109e+00
-4.002163410186767578e+00
-2.424922561645507812e+01
5.871039390563964844e+00
9.842583656311035156e+00
9.851970076560974121e-01
2.512341499328613281e+00
1.085363864898681641e+01
1.648100852966308594e+00
5.490540862083435059e-01
-1.677658677101135254e+00
-2.153549194335937500e+00
-1.898625850677490234e+00
3.020254516601562500e+02
-1.005844974517822266e+01
6.855091571807861328e+00
1.557700157165527344e+01
1.863060951232910156e+00
-2.191597461700439453e+00
-4.196203708648681641e+00
1.177115559577941895e+00
7.182559370994567871e-01
5.438727378845214844e+00
-4.968351840972900391e+00
-1.471943706274032593e-01
-6.518409252166748047e+00
-3.146736383438110352e+00
-9.155173897743225098e-01
-9.482986450195312500e+00
-2.661460638046264648e+00
1.372835254669189453e+01
-1.877559661865234375e+00
8.745761871337890625e+00
-2.396491527557373047e+00
7.473882436752319336e-01
-3.934622406959533691e-01
4.339434146881103516e+00
5.410578250885009766e+00
4.727834224700927734e+00
1.996895980834960938e+01
-8.196731567382812500e+00
9.553622245788574219e+00
3.815930366516113281e+00
-1.507979869842529297e+00
-1.881930112838745117e+00
-1.111303567886352539e+00
-3.672606229782104492e+00
8.083298683166503906e+00
2.255358248949050903e-01
-2.658363819122314453e+00
1.502052593231201172e+01
8.870615959167480469e+00
1.850666236877441406e+01
-1.158607769012451172e+01
-2.330189466476440430e+00
-5.627179145812988281e+00
2.100150823593139648e+00
-1.016504645347595215e+00
1.016485691070556641e+01
-8.203483581542968750e+00
-1.970144987106323242e+00
-8.363348007202148438e+00
2.688127708435058594e+01
1.460204362869262695e+00
-3.579096078872680664e+00
-2.237737655639648438e+00
-3.960195064544677734e+00
-6.644165992736816406e+00
-4.159712791442871094e+00
-9.726606369018554688e+00
-6.769546985626220703e+00
2.834232568740844727e+00
-4.452798843383789062e+00
-3.529977560043334961e+00
-1.480737018585205078e+01
-6.537604808807373047e+00
2.122659111022949219e+01
-3.227608919143676758e+00
-5.312757968902587891e+00
-1.945093512535095215e+00
6.291180253028869629e-01
5.500029921531677246e-01
-3.704352140426635742e+00
-2.873622894287109375e+00
5.245739459991455078e+00
8.834482192993164062e+00
1.023158931732177734e+01
-1.276980280876159668e+00
4.539939463138580322e-01
-1.190482807159423828e+01
-8.185045123100280762e-01
8.679344058036804199e-01
-9.617973327636718750e+00
-2.387863397598266602e+00
-7.924072742462158203e+00
-6.995750904083251953e+00
6.053221225738525391e+00
-1.085960626602172852e+00
-1.372728228569030762e+00
-8.386418342590332031e+00
-5.491389274597167969e+00
3.445173740386962891e+00
-1.973945617675781250e+00
-2.451012134552001953e+00
6.345605373382568359e+00
2.587832260131835938e+01
1.236095666885375977e+00
-4.989292144775390625e+00
-4.346033573150634766e+00
2.688537836074829102e+00
-1.020991444587707520e+00
-5.378438949584960938e+00
-7.881268978118896484e+00
-2.746863126754760742e+00
3.393153429031372070e+00
-2.680251300334930420e-01
1.665886878967285156e+00
-4.615969657897949219e+00
-4.089309215545654297e+00
-2.878237962722778320e-01
-1.482301592826843262e+00
2.323326826095581055e+00
-7.056257724761962891e+00
6.173151969909667969e+00
6.147782325744628906e+00
-5.512055873870849609e+00
1.765868186950683594e+01
9.076280593872070312e-01
5.085874557495117188e+00
-5.579233169555664062e+00
-2.602892875671386719e+00
-1.672983288764953613e+00
2.574882030487060547e+00
5.039220333099365234e+00
8.622329235076904297e-01
-1.310835599899291992e+00
1.026588630676269531e+01
8.092961311340332031e-01
-2.373851299285888672e+00
5.852798938751220703e+00
-3.990504026412963867e+00
6.595058917999267578e+00
6.346618175506591797e+00
1.406816387176513672e+01
3.379521846771240234e+00
3.199731111526489258e+00
-2.263081789016723633e+00
2.406599044799804688e+00
-9.613392829895019531e+00
-1.154646277427673340e+00
8.514267921447753906e+00
9.628741264343261719e+00
8.391565322875976562e+00
1.904391407966613770e+00
-8.143563270568847656e-01
-3.537415564060211182e-01
5.548914909362792969e+00
-1.387896537780761719e-01
-1.224281406402587891e+01
-8.727566599845886230e-01
-8.538067340850830078e-01
2.267535209655761719e+00
3.393778800964355469e+00
-2.394237756729125977e+00
2.093943595886230469e+00
-1.842088460922241211e+00
8.257315635681152344e+00
8.131142616271972656e+00
1.283975958824157715e+00
5.188446044921875000e+00
1.431656349450349808e-02
6.307737350463867188e+00
-1.356165027618408203e+01
7.937314510345458984e-01
-2.729492187500000000e+00
-3.790356874465942383e+00
-3.806627511978149414e+00
2.504831314086914062e+00
4.531461238861083984e+00
2.033432722091674805e+00
8.343361854553222656e+00
2.133133172988891602e+00
-5.042629241943359375e+00
-1.377709960937500000e+01
6.217929363250732422e+00
3.136511325836181641e+00
2.248953342437744141e+00
-8.477860450744628906e+00
1.374765038490295410e+00
-1.445744633674621582e+00
6.870012283325195312e+00
-8.948326110839843750e-01
1.286557435989379883e+00
-2.216765165328979492e+00
-1.521507620811462402e+00
-9.882207870483398438e+00
1.644968867301940918e+00
2.451105833053588867e+00
6.078628063201904297e+00
1.033886146545410156e+01
-2.196120023727416992e+00
4.507485389709472656e+00
3.359628915786743164e+00
1.716860651969909668e+00
1.450952911376953125e+01
4.115787982940673828e+00
-3.054762125015258789e+00
4.817409515380859375e+00
5.606606483459472656e+00
-9.502170562744140625e+00
1.788679838180541992e+00
-3.355768322944641113e-01
-3.151076436042785645e-01
-6.611312389373779297e+00
-3.028320789337158203e+00
9.800027847290039062e+00
-7.995706796646118164e-01
-1.013193607330322266e+01
-1.015540122985839844e+01
6.065129041671752930e-01
-9.455750465393066406e+00
-6.916096210479736328e+00
7.193702220916748047e+00
2.592159986495971680e+00
-1.403971195220947266e+01
3.702685117721557617e+00
-5.679273605346679688e+00
-3.721979141235351562e+00
-5.713009357452392578e+00
2.048739433288574219e+00
3.016476154327392578e+00
-1.093011188507080078e+01
-7.504291057586669922e+00
8.386545181274414062e+00
-1.339822483062744141e+01
-1.044900321960449219e+01
-6.469952106475830078e+00
-1.157076740264892578e+01
-3.425945043563842773e+00
-4.366417884826660156e+00
-2.618404626846313477e-01
5.843116760253906250e+00
-1.003779530525207520e+00
-1.266185665130615234e+01
1.908019036054611206e-01
-2.136299896240234375e+01
6.911383271217346191e-01
-7.651795148849487305e-01
-4.101817131042480469e+00
1.663249373435974121e+00
-7.005785465240478516e+00
-5.306581020355224609e+00
-2.848737716674804688e+00
8.521607518196105957e-01
-4.983899593353271484e+00
1.842545390129089355e+00
4.729933261871337891e+00
-1.436061739921569824e+00
-2.372480630874633789e+00
2.614910125732421875e+00
-6.602319478988647461e-01
-5.228558063507080078e+00
-2.856193780899047852e+00
2.630550384521484375e+00
1.548883557319641113e+00
-9.665592193603515625e+00
-9.839828491210937500e+00
-9.855356216430664062e+00
-8.218495368957519531e+00
-6.733434796333312988e-01
2.846039533615112305e+00
6.710766792297363281e+00
-3.480362653732299805e+00
-2.600203752517700195e+00
6.452951431274414062e+00
5.999538421630859375e+00
6.255754947662353516e+00
2.743491828441619873e-01
-8.595692634582519531e+00
8.390318870544433594e+00
3.679128885269165039e+00
6.316737651824951172e+00
7.713841438293457031e+00
3.355839490890502930e+00
-3.730960130691528320e+00
-7.563455700874328613e-01
1.077362442016601562e+01
6.638363003730773926e-01
6.591346263885498047e+00
5.537049770355224609e+00
1.799395751953125000e+01
-4.132486820220947266e+00
1.115200996398925781e+00
7.689620971679687500e+00
-4.619126319885253906e+00
-9.426797628402709961e-01
-1.241033554077148438e+01
2.293495416641235352e+00
7.442790031433105469e+00
2.179292440414428711e+00
-1.047473669052124023e+00
-4.745527267456054688e+00
-4.785004138946533203e+00
4.232336997985839844e+00
-7.572847604751586914e-01
2.769374132156372070e+00
-4.858638286590576172e+00
-5.194818019866943359e+00
4.464911937713623047e+00
8.938764929771423340e-01
-1.065858650207519531e+01
3.865020751953125000e+00
1.370835494995117188e+01
7.050422191619873047e+00
-7.254983425140380859e+00
1.124516296386718750e+01
-1.304458737373352051e+00
3.018390893936157227e+00
-5.088432788848876953e+00
2.972628593444824219e+00
1.200472736358642578e+01
-1.392189383506774902e+00
-4.186608791351318359e+00
1.137639331817626953e+01
3.827540159225463867e+00
3.367947101593017578e+00
5.554978370666503906e+00
-2.795331239700317383e+00
-2.942132186889648438e+01
1.900583207607269287e-01
6.416193008422851562e+00
-7.751910686492919922e+00
1.375395178794860840e+00
-2.845918416976928711e+00
-1.010944175720214844e+01
1.913512110710144043e+00
1.368016600608825684e+00
-1.676866769790649414e+00
-8.138555288314819336e-01
-7.454795360565185547e+00
9.528507292270660400e-02
4.308819293975830078e+00
2.893046140670776367e+00
-1.150604188442230225e-01
2.209305286407470703e+00
5.313449859619140625e+00
5.946326255798339844e+00
-1.133412170410156250e+01
-3.546623513102531433e-02
6.760942459106445312e+00
3.221795320510864258e+00
-5.576655864715576172e+00
6.747604846954345703e+00
-8.499009132385253906e+00
-2.166897773742675781e+00
-6.107814788818359375e+00
6.620390415191650391e+00
-3.066781282424926758e+00
2.663962602615356445e+00
3.813355207443237305e+00
3.514602422714233398e+00
-1.523107624053955078e+01
1.343188953399658203e+01
-5.801937580108642578e-01
7.203024864196777344e+00
2.573922872543334961e+00
-1.162166023254394531e+01
-1.098071217536926270e+00
-5.662651062011718750e+00
4.284644126892089844e+00
-5.398216724395751953e+00
-1.769196510314941406e+00
-3.825851917266845703e+00
9.183801651000976562e+00
3.657841682434082031e+00
-2.172381401062011719e+00
1.704376339912414551e+00
-1.597324252128601074e+00
6.193715572357177734e+00
-1.858882009983062744e-01
3.526085376739501953e+00
-6.732434779405593872e-02
-6.866914033889770508e-01
-1.886678457260131836e+00
7.702791690826416016e+00
5.805602073669433594e+00
3.994140863418579102e+00
1.014398097991943359e+01
4.607346951961517334e-01
1.484344363212585449e+00
6.260254979133605957e-01
3.639935255050659180e+00
-6.147923469543457031e+00
-3.600518703460693359e+00
6.673324108123779297e+00
-6.848059654235839844e+00
-6.433635711669921875e+00
2.587650680541992188e+01
-6.392448425292968750e+00
3.870181083679199219e+00
-1.206189870834350586e+00
-2.696539163589477539e+00
-1.475232028961181641e+01
7.799181342124938965e-01
3.421499967575073242e+00
-6.706299781799316406e+00
2.947842836380004883e+00
-5.566637992858886719e+00
-2.926195859909057617e+00
1.475440025329589844e+01
-7.653744220733642578e+00
2.696033000946044922e+00
-8.976964950561523438e-01
-8.104515075683593750e-01
-1.511681675910949707e+00
-6.095095634460449219e+00
-4.980884119868278503e-02
-4.777108132839202881e-01
1.418010592460632324e+00
-1.291627883911132812e+00
1.957937121391296387e+00
-5.413187980651855469e+00
1.252627849578857422e+01
-7.537617206573486328e+00
1.185572862625122070e+00
5.377483367919921875e+00
-1.370036840438842773e+00
-8.553155511617660522e-02
-1.448053359985351562e+00
-2.061119556427001953e+00
-4.656547069549560547e+00
1.245876312255859375e+00
-1.977144360542297363e+00
-4.833174228668212891e+00
-1.387632191181182861e-01
-7.037153840065002441e-02
-1.267296791076660156e+00
-4.431656748056411743e-02
1.997142732143402100e-01
-1.204674959182739258e+00
4.114648103713989258e-01
2.894333600997924805e-01
-1.979049563407897949e+00
-4.910007953643798828e+00
-4.070718288421630859e+00
1.627394914627075195e+00
-4.179032325744628906e+00
1.883469963073730469e+01
-7.392597794532775879e-01
-6.476900100708007812e+00
-9.635302543640136719e+00
-1.227034211158752441e+00
1.031709289550781250e+01
-3.538039684295654297e+00
7.888953685760498047e-01
-4.392385959625244141e+00
4.410888195037841797e+00
9.569807052612304688e+00
8.166634559631347656e+00
6.695478439331054688e+00
2.223899364471435547e+00
4.665552139282226562e+00
-1.180462455749511719e+01
-5.634473323822021484e+00
2.767326354980468750e+00
-3.876312494277954102e+00
8.531821250915527344e+00
8.980217576026916504e-02
-6.774609565734863281e+00
2.062064743041992188e+01
1.132849216461181641e+00
4.530422210693359375e+00
1.110581684112548828e+01
2.278464317321777344e+00
-1.569496631622314453e+00
-3.600598812103271484e+00
-6.310223102569580078e+00
-4.592629671096801758e-01
3.556259155273437500e+00
-2.406943082809448242e+00
-5.084693908691406250e+00
-4.977444648742675781e+00
-5.685855746269226074e-01
2.338804960250854492e+00
-2.157277107238769531e+01
-2.528148651123046875e+00
7.772812247276306152e-01
-7.177525520324707031e+00
-2.243086547851562500e+02
-3.948729038238525391e+00
-5.196097850799560547e+00
-1.386677551269531250e+01
7.617470264434814453e+00
-3.409058809280395508e+00
-2.473598480224609375e+00
1.300198912620544434e+00
-3.930849075317382812e+00
-3.485460519790649414e+00
-3.306366920471191406e+00
4.939178824424743652e-01
6.885608196258544922e+00
-1.003149604797363281e+01
-1.803674101829528809e+00
-8.741790771484375000e+00
-5.410727024078369141e+00
-3.624708175659179688e+00
5.560124516487121582e-01
-1.361672401428222656e+01
3.076314032077789307e-01
-1.375936746597290039e+00
-3.075080633163452148e+00
3.893968820571899414e+00
9.049618721008300781e+00
7.903455257415771484e+00
-3.694397211074829102e+00
1.821494817733764648e+00
1.752616405487060547e+00
1.395969510078430176e+00
-4.728328227996826172e+00
1.581348896026611328e+00
-1.395126152038574219e+01
-3.474131107330322266e+00
-7.218123912811279297e+00
-5.494665145874023438e+00
-1.196317791938781738e+00
-3.869750022888183594e+00
2.584089994430541992e+00
-4.532878875732421875e+00
-9.017724990844726562e+00
2.460902780294418335e-01
2.194062995910644531e+01
5.218525528907775879e-01
2.054066419601440430e+00
-3.128028154373168945e+00
4.846263885498046875e+00
-6.180558681488037109e+00
1.001072692871093750e+01
4.421792507171630859e+00
-5.546876907348632812e+00
-1.867404341697692871e+00
-1.824927806854248047e+00
-1.384738826751708984e+01
7.440242767333984375e+00
4.996665477752685547e+00
-1.392486810684204102e+00
-3.864577054977416992e+00
-8.132102012634277344e+00
-2.102121543884277344e+01
-1.124760508537292480e+00
6.815977096557617188e-01
-9.837948799133300781e+00
-4.457659244537353516e+00
3.768033981323242188e+00
-2.274700880050659180e+00
8.656328201293945312e+00
2.321866989135742188e+00
5.614174842834472656e+00
9.415044784545898438e+00
1.669828534126281738e+00
6.303146362304687500e+00
-5.413451671600341797e+00
1.929306149482727051e+00
6.333313941955566406e+00
-5.436992645263671875e+00
-2.233718633651733398e+00
7.703891277313232422e+00
-1.491816902160644531e+01
-6.044415950775146484e+00
-2.518384456634521484e+00
1.915710091590881348e+00
-5.321022033691406250e+00
4.394754886627197266e+00
-4.007974147796630859e+00
-1.234029483795166016e+01
3.857596874237060547e+00
-3.971014499664306641e+00
3.859925270080566406e+00
4.123792648315429688e+00
5.121821880340576172e+00
2.862587928771972656e+01
3.384001255035400391e+00
5.512598991394042969e+00
3.399264812469482422e+00
-3.917855501174926758e+00
-1.712128221988677979e-01
3.195363044738769531e+00
2.215615749359130859e+00
2.445086002349853516e+00
4.854014396667480469e+00
-1.293549060821533203e+00
-2.689544916152954102e+00
-1.410576152801513672e+01
-4.706120014190673828e+00
3.726720809936523438e+00
-4.037053585052490234e+00
5.809702277183532715e-01
-2.240863800048828125e+00
-5.794680118560791016e+00
6.088722705841064453e+00
-3.829500079154968262e-01
-3.555878162384033203e+00
-7.935678958892822266e-01
6.842833757400512695e-01
-1.508398294448852539e+00
5.410700798034667969e+00
-1.171253013610839844e+01
-1.305082678794860840e+00
3.141538143157958984e+00
3.891684770584106445e+00
7.750586509704589844e+00
-1.054346179962158203e+01
-5.119039416313171387e-01
-8.422023773193359375e+00
-7.644684314727783203e+00
-1.072267174720764160e+00
1.012050628662109375e+00
-1.803534865379333496e+00
-2.509715259075164795e-01
-9.112322807312011719e+00
7.577869415283203125e+00
-1.017437934875488281e+01
1.664998531341552734e+00
-4.546945989131927490e-01
1.090305423736572266e+01
-2.911155819892883301e-01
-3.721127808094024658e-01
-6.055262565612792969e+00
-5.380410194396972656e+00
4.914868831634521484e+00
2.833959341049194336e+00
-3.460496366024017334e-01
-2.060494899749755859e+00
-5.587408065795898438e+00
1.973557353019714355e+00
-1.885418653488159180e+00
-6.796223640441894531e+00
-1.862605452537536621e+00
-7.910977840423583984e+00
-3.829785346984863281e+00
-6.984128952026367188e-01
2.715220689773559570e+00
-1.202077984809875488e+00
-5.380376815795898438e+00
3.780323266983032227e+00
1.671724617481231689e-01
1.205875992774963379e+00
-8.828320503234863281e-01
-6.495319843292236328e+00
-1.023685932159423828e+01
1.088597297668457031e+01
-7.980953693389892578e+00
3.577487182617187500e+01
2.318888902664184570e+00
3.018525362014770508e+00
4.348319053649902344e+00
2.982676506042480469e+00
-8.218979835510253906e+00
3.179289340972900391e+00
-3.514748334884643555e+00
-2.597773551940917969e+00
3.524355888366699219e+00
-5.224140167236328125e+00
4.003529071807861328e+00
5.509184837341308594e+00
-2.080476989746093750e+02
-6.386334419250488281e+00
-8.114567399024963379e-01
2.683470535278320312e+01
-1.107096910476684570e+00
-1.013028621673583984e+00
5.522527694702148438e+00
-3.580575942993164062e+00
8.716067671775817871e-01
-6.150191783905029297e+00
-2.046546220779418945e+00
3.776697158813476562e+00
-5.009835243225097656e+00
-5.749207973480224609e+00
-1.018164920806884766e+01
1.361875772476196289e+00
-7.681016921997070312e+00
-4.229176521301269531e+00
-9.182112216949462891e-01
-1.526933288574218750e+01
-3.577958419919013977e-02
5.559324264526367188e+00
-3.549991369247436523e+00
8.819788098335266113e-01
-1.017939472198486328e+01
-5.046443939208984375e+00
-1.347884654998779297e+00
-3.249589800834655762e-01
5.385994315147399902e-01
-2.614443540573120117e+00
8.852915167808532715e-01
-3.006993532180786133e+00
9.154595136642456055e-01
-3.556596934795379639e-01
2.454093396663665771e-01
1.873950362205505371e+00
-4.973924160003662109e+00
-7.756903171539306641e+00
1.730234909057617188e+01
-1.774073028564453125e+01
-5.029178142547607422e+00
-2.308388233184814453e+00
2.820776224136352539e+00
-6.288386583328247070e-01
4.721203804016113281e+00
1.091421961784362793e+00
-1.114741802215576172e+01
-2.347480058670043945e+00
-2.974223852157592773e+00
-5.783375740051269531e+00
5.267739295959472656e+00
5.889444828033447266e+00
7.976674079895019531e+00
-4.342541217803955078e+00
-7.445713520050048828e+00
2.122816276550292969e+01
-4.399313449859619141e+00
1.174423980712890625e+01
4.881085395812988281e+00
8.222690582275390625e+00
3.800939559936523438e+00
7.564889732748270035e-03
-8.082706451416015625e+00
-1.519763469696044922e+01
2.724311649799346924e-01
2.912579917907714844e+01
3.595168590545654297e-01
6.720668673515319824e-01
1.040965318679809570e+00
2.500789642333984375e+00
8.105882406234741211e-01
1.901683568954467773e+00
-2.632158756256103516e+00
-3.513708114624023438e+00
6.422114849090576172e+00
-2.130370855331420898e+00
1.772536277770996094e+00
3.284596920013427734e+00
1.397614717483520508e+00
-3.335927248001098633e+00
3.004474878311157227e+00
1.578754997253417969e+01
-1.081914901733398438e+01
-1.830035328865051270e+00
1.097799301147460938e+00
6.605719566345214844e+00
1.767259979248046875e+01
9.219659805297851562e+00
-1.326895523071289062e+01
9.127214431762695312e+00
-4.405216217041015625e+00
5.288818836212158203e+00
-3.856606960296630859e+00
-5.361926555633544922e+00
4.148087978363037109e+00
8.491839408874511719e+00
-7.501249313354492188e+00
-4.032920360565185547e+00
1.550309062004089355e-01
1.299284648895263672e+01
1.105412602424621582e+00
-2.948976039886474609e+00
-5.091586589813232422e+00
-1.281606703996658325e-01
1.704130744934082031e+01
5.285521507263183594e+00
2.392492866516113281e+01
-2.290979146957397461e+00
-7.121622085571289062e+00
3.830272257328033447e-01
-6.986143589019775391e+00
5.432749986648559570e-01
-2.238332986831665039e+00
-1.445187473297119141e+01
9.109370231628417969e+00
1.739757061004638672e+00
-4.919992446899414062e+00
2.785429477691650391e+00
-2.349401563405990601e-01
-4.568750858306884766e+00
-1.674459457397460938e+00
-2.505604982376098633e+00
-7.721316337585449219e+00
-1.792238426208496094e+01
4.189681529998779297e+00
-6.259923458099365234e+00
-7.011120319366455078e+00
8.012507438659667969e+00
